0.5317035
0.33496633
0.37355974
0.113562234
-0.25687772
-0.49963307
-0.5220727
-0.29982525
0.04358928
-0.26827535
0.57054585
-0.61553705
-0.14486594
0.24939089
-0.25251058
-0.27083382
-0.5810709
0.32098028
0.3062828
0.62418693
-0.43678254
0.20940089
0.23429741
0.94281775
-0.45133296
0.31677946
0.34723458
-0.082636304
-0.35734048
-0.03551628
0.15543105
-0.5564696
0.41019323
-0.12084856
-0.21783608
0.2710094
0.41654032
-0.36466902
-0.20865925
0.11325385
-0.6707202
-0.024958223
-0.17063874
0.2749447
0.2567258
-0.092352286
-0.15045232
0.31474233
-0.016991345
0.35286924
-0.07351112
-0.080452956
-0.14583395
-0.20920439
0.79905874
-0.4648107
0.3222078
-0.57017726
-0.14722034
0.21247965
-0.33158314
0.41367307
0.20414826
0.31218
-0.10565318
0.14854616
0.43665326
-0.7323013
-0.0023879698
0.09422149
0.79230994
-0.37722751
-0.16053973
0.11342461
-0.6496403
-0.13862818
0.417858
0.2127432
-0.62805873
0.28107396
0.48259267
-0.5020373
0.48830312
0.01898914
-0.35018408
-0.33130592
0.2806496
0.4189319
-0.014174131
-0.024787106
0.44390407
-0.617087
-0.09994922
0.10947854
0.13924596
-0.025837755
-0.1936308
0.07205941
0.3871928
0.40026483
0.0966938
-0.48099053
0.46502495
0.4846596
-0.14292665
0.65273434
0.50391066
-0.4141537
-0.48433426
-0.5437356
-0.015600654
-0.46444625
0.5423281
-0.84680367
0.3766223
-0.15408486
0.35270375
-0.21984835
0.41231853
0.52184856
-0.121725366
-0.2563879
0.03896264
-0.6599664
0.35946947
0.058056455
0.15582716
-0.27629343
-0.29097703
0.28873
-0.23778176
0.6348529
-0.31865758
-0.11844872
0.07929218
-0.25839543
0.1024233
0.19139867
-0.2943991
0.41808757
-0.32002234
0.5312553
0.9885832
-0.39589474
0.124823965
-0.4426938
-0.22054872
0.061879124
0.5128071
-0.17201188
-0.028302217
-0.30532342
-0.33637813
-0.13100106
0.23612735
0.85825384
0.09608839
0.37363914
-0.3869106
-0.21344876
0.4532376
-0.46109998
0.14154829
0.16598758
0.34285256
-0.34951058
0.37541255
0.012435804
-0.48668778
-0.103453726
-0.5847235
0.39328843
0.16997193
0.320632
-0.022446375
0.81240684
0.11550413
-0.52300555
0.54006547
-0.397208
0.17668098
-0.31201768
0.1039577
0.61182195
0.26118493
0.40301624
-0.062624305
-0.59897107
0.24009691
-0.3344353
-0.42737833
-0.12659189
0.044343133
0.64163494
-0.26539257
0.07391403
-0.2109553
-0.36007008
0.12276904
-0.17720899
-0.057890948
0.5882895
-0.29712632
-0.35865974
0.3881485
0.30826753
-0.4960295
-0.34987324
0.67183805
-0.45442742
0.50423074
-0.12360446
-0.58866584
-0.60132676
-0.22045922
0.45641452
0.70855737
0.54678845
-0.0999248
-0.09158527
-0.20851202
0.20481516
-0.31839415
0.30490634
0.04794402
0.5786203
-0.25035736
0.20307639
0.016892917
-0.09440327
0.5662808
-0.27608266
0.7105818
-0.17375375
-0.41243368
-0.22471698
-0.3371943
0.44250843
-0.12415631
-0.07354967
-0.69216883
0.35313284
-0.43877617
-0.048855573
0.05199066
0.33197597
-0.425022
0.00815529
-0.0595223
0.45207945
0.2933458
0.60290664
0.5556843
-0.07047534
0.30395606
-0.64584863
-0.14643744
-0.50793
0.48714447
-0.20417413
0.12525727
0.056471992
-0.34118563
0.16728336
0.17733616
-0.13586237
0.10304935
0.19428612
-0.32058144
-0.1413774
-0.3718298
0.21566302
0.24133985
-0.1899971
-0.01676925
0.1503179
0.3391343
-0.01844721
-0.031008786
-0.2304709
0.13527751
-0.06575078
-0.06597681
-0.03884797
0.03707256
-0.10550931
0.3138528
-0.5688217
0.18127011
-0.04833713
0.7844535
0.056363862
0.60734725
0.081818596
-0.4143216
-0.48147342
0.39611498
0.5848085
0.063133165
-0.1656343
0.12133634
0.06962624
0.032678105
0.62719905
-0.096702315
-0.42470512
0.21974671
-0.10941709
-0.69200796
-0.5751894
-0.12572998
-0.077603996
0.016170645
0.38608593
0.25490597
0.40354782
-0.58876395
-0.73948544
-0.0766215
0.61955184
-0.32717365
0.34498727
-0.012621302
0.009193813
0.5814822
-0.34593314
-0.070717484
0.1552069
-0.6724524
-0.06362412
-0.023639727
-0.26153785
-0.66165864
-0.19520321
0.1625989
0.56475586
0.19653007
-0.36939344
0.12370026
0.31074312
-0.32055315
0.38144425
-0.046909954
0.22675626
-0.40996915
-0.24371067
0.3529797
0.15542628
0.009385481
-0.2887046
-0.09954608
0.5401874
-0.28072935
-0.29261595
-0.0038691303
-0.77698463
0.04115459
0.65898895
-0.27203214
-0.132059
-0.20299447
-0.5088328
0.39755553
0.111297205
0.14774477
-0.49438083
-0.4356393
-0.05124761
-0.003095961
0.29683957
-0.11932875
0.42263657
0.11423318
0.20672882
-0.06124176
-0.3399444
-0.13393478
-0.12169264
0.2486953
-0.110897765
0.022513522
-0.4972724
-0.03149295
0.20898393
-0.42224556
-0.16019344
-0.5599913
-0.10283417
-0.056180745
0.5748701
0.1275595
0.2525114
-0.25900206
-0.031690888
0.36388656
0.1339782
-0.49263456
-0.22008005
-0.5990956
0.15415163
0.24231206
0.18122958
-0.5555002
-0.14949745
0.8663693
-0.4853144
0.45063898
0.010889969
0.22723441
-0.5648041
0.15067874
-0.25551063
-0.7164859
0.6965118
-0.10500014
-0.12656406
-0.123160906
0.07301162
0.1901706
0.23075166
0.5788291
-0.411499
-0.110599086
-0.013355787
-0.27702048
0.046283588
0.2378442
-0.23376217
0.16261712
-0.44911054
-0.046288166
-0.17856179
-0.05335486
-0.5378541
-0.24262942
0.029731957
0.50301605
-0.25930697
0.6838985
-0.18289122
0.15667544
-0.2181596
-0.4225441
0.73575723
-0.029828336
0.55132335
-0.41589054
-0.55826014
0.07450049
0.4821417
-0.40258434
-0.35728118
0.17356257
-0.17474537
0.3569518
-0.03553899
-0.23452643
0.080680594
0.008577145
0.21644783
-0.2672238
0.12279202
0.51009196
0.46945167
-0.21596433
0.06946259
-0.3502303
-0.11949228
0.15533587
0.07022117
0.51653427
0.13863654
-0.073425636
0.17191556
0.0551337
0.55057704
-0.13889058
-0.52882195
0.18789983
-0.69485295
0.18955344
0.451103
-0.32958573
-0.007621744
-1.0297563
0.7619879
-0.35950235
0.46749678
-0.28056458
0.67764395
0.28567475
0.40144712
0.74405646
-0.3844739
-0.05109111
-0.12001452
0.17842554
-0.49609563
-0.3593793
-0.17052789
